//Numpy array shape [32, 5]
//Min -1.159560441971
//Max 1.033820748329
//Number of zeros 0

#ifndef W11_H_
#define W11_H_

#ifndef __SYNTHESIS__
model_default_t w11[160];
#else
model_default_t w11[160] = {-0.0593291856, -0.0491963290, 0.2941781580, -0.0850024596, -0.4535509348, -0.3085358441, -0.1621372998, 0.4436714947, 0.0945368409, 0.0383091792, -0.4553643465, -0.2861301899, -0.1483559310, 1.0338207483, -0.6046538353, 0.2872650921, -0.2669600546, -0.2002736181, -0.3107552528, -0.1407510191, 0.2412912697, 0.3858589828, 0.1373020709, -0.2055194080, -0.2044840902, -0.2581732571, -0.0981370285, 0.4494221807, 0.5873829126, -0.2339049429, -0.2840205431, -0.0250142291, -0.3746837974, 0.2146736830, -0.1246471852, 0.5263940692, -0.1942845285, -0.3625299335, -0.2330339849, -0.0057246983, 0.1350290030, 0.3648018241, -0.3752831519, -0.0757555813, 0.2100407034, 0.0019334184, 0.0896646380, 0.2067945451, -0.6496159434, 0.3401153684, 0.3834840953, -0.2478463799, -0.0685844496, 0.4735082686, -0.1970621645, 0.0398671180, 0.2499898672, -0.5206591487, 0.0000015831, -0.0002645774, -0.4593418241, -0.4728942811, -0.5070931315, -0.1588595957, 0.6467264295, 0.5006102324, -0.1043098941, -0.2225366235, -0.2615478039, -0.2842700481, 0.0757135227, 0.1816253662, -0.8754951358, 0.4626827240, 0.2799827754, -0.0013888135, -0.0970491916, -0.3077369332, 0.8517038226, -0.3598650694, 0.2491614968, 0.1144714579, -0.0908194482, -0.2318646163, -0.3585359156, 0.0141678592, -0.3545472920, 0.5148562789, -0.0005142234, -0.1501427442, 0.0179951210, 0.3329186738, 0.1774562746, -0.1961339116, -0.1555661708, -0.5992373824, 0.3576679528, -0.0172522105, -0.1160962507, -0.0171720926, 0.0941886231, 0.0008352883, -0.6845002174, -1.1595604420, 0.9747377038, -0.0002773239, -0.2164699435, 0.0671217516, 0.9219778776, -0.5425852537, 0.7389661670, -0.3746421933, 0.5625492334, -0.4017095566, -0.5512504578, 0.0000115882, 0.0000132232, -0.0000072958, 0.0000032256, 0.0000153565, -0.5118376017, -0.3330298066, 0.1101577505, 0.4839451611, 0.6000891924, -0.5494914651, 0.0185841136, -0.4039166868, 0.4847908914, 0.1290129274, -0.4331976771, -0.4875459671, -0.1797928214, 0.3977663219, 0.4864212275, -0.4420075715, -0.5591487288, 0.0888693184, 0.1789771467, -0.0177328084, 0.0213293843, -0.2819220424, 0.0587337837, -0.4002125859, -0.0510782786, -0.4116193950, -0.3934474289, 0.4234138131, 0.0002352803, 0.2953066230, 0.1593633592, -0.0001258238, -0.2128423005, -1.0765464306, 0.7631576657, -0.4666366875, -0.2784149349, 0.3606461585, -0.2608348429, 0.5828047395};

#endif

#endif
