//Numpy array shape [16, 64]
//Min -1.229966282845
//Max 1.014856696129
//Number of zeros 0

#ifndef W2_H_
#define W2_H_

#ifndef __SYNTHESIS__
model_default_t w2[1024];
#else
model_default_t w2[1024] = {0.0081601823, -0.2740877867, 0.0090894802, 0.0157160293, 0.0003788620, 0.3244090378, 0.1662826985, 0.4259732068, 0.1225624755, -0.2909982800, 0.2644170821, 0.1227485538, -0.0104500158, 0.0005349318, 0.0028092677, 0.1789419204, 0.2061842829, 0.1995555311, 0.5318979621, -0.4325338304, -0.1968094558, -0.3313887119, 0.0537858941, 0.1565933228, 0.0181458052, -0.0865264907, 0.0635524243, -0.3628485799, -0.4695921242, 0.0973696709, -0.3647690713, -0.0744777471, -0.1087310389, -0.3239198923, -0.2753866911, -0.0285471380, -0.0079767602, 0.1738623232, 0.3369053602, -0.1493175477, -0.2490137368, 0.0873359740, -0.2017526776, -0.0411761105, 0.2954192460, -0.0968684107, -0.5164021254, -0.0237038210, -0.0036952505, 0.1202503219, 0.1023856476, -0.3526137769, 0.2442865670, -0.1781992465, 0.1431306750, -0.0976144075, -0.3255566955, -0.0700548515, -0.3691546619, -0.3786243498, 0.2819322646, 0.4056978226, 0.0046301237, -0.0006183571, -0.0001147059, 0.2824053764, 0.2599829435, -0.0126016960, -0.1647279412, 0.1937309504, 0.0235582162, 0.0926127657, 0.1809723377, 0.2513127625, -0.3564741910, -0.1932536066, -0.0908652842, -0.2721794844, 0.2923001647, -0.2313469648, 0.0509562306, 0.4166250229, 0.4294521809, 0.2558770478, -0.0316006877, -0.2782300711, 0.1073203087, -0.1745892316, 0.0822925493, -0.2795290649, 0.2486906201, 0.0010575072, -0.2888877392, 0.0733666569, 0.2493519485, 0.0579444021, 0.0841026157, -0.0024468671, 0.0032674931, -0.2547430098, 0.2112315446, 0.2046275139, -0.4006187022, 0.5181915760, -0.0357302353, 0.0020574946, -0.2315265834, 0.2891307473, 0.2554122210, 0.0015049846, -0.3726457059, 0.0005668193, -0.0039750375, -0.0005422633, -0.0008391810, -0.2378831804, 0.3596594036, -0.1078995690, 0.0145628452, 0.4650852382, -0.1646402031, -0.0379272923, -0.0483601280, 0.2867206633, -0.1385472864, 0.3542155623, 0.1238870099, 0.1590035856, 0.1239588410, -0.0304894783, -0.1414030492, 0.6445441842, 0.1907000244, 0.0196987446, 0.0754099339, -0.2383020073, 0.0627935305, -0.0000250182, -0.1244694665, -0.0000748856, 0.0000060179, 0.0002828818, 0.5865933299, -0.3307712972, -0.0456450209, -0.2455953509, -0.1867087483, -0.3174329996, -0.1085845605, 0.0069006355, -0.1057491899, -0.0032541340, -0.2278454900, -0.2210600376, -0.1170820370, 0.3932806849, -0.7403112054, -0.2248422354, -0.0002672638, 0.1809279472, 0.0069941934, -0.3177031577, -0.3163253367, -0.1486997902, 0.1057956964, 0.4295622110, 0.1076481193, 0.0418067575, 0.4163433015, 0.0445574075, 0.1585962921, 0.0002448818, 0.0146793062, 0.0227406640, -0.3794469237, 0.2155661434, -0.0566191301, 0.3900007606, 0.1029126197, 0.3067090809, 0.0015161966, 0.2755303085, -0.6027571559, 0.0597103015, 0.1117780879, 0.1743808985, 0.0820627585, 0.2654711604, 0.1997276545, -0.3155570924, 0.5944663882, 0.1738888174, -0.2227158397, -0.1403719336, -0.0084823612, 0.0277371593, 0.4372780323, 0.1127767488, -0.5392624736, -0.1973576099, 0.0112505779, -0.1896169931, -0.0002794883, -0.6242626309, -0.3453305960, 0.0153838601, -0.2844496071, -0.0003905557, -0.0341930650, -0.6785920262, -0.4122619927, -0.0137558607, -0.4872678518, -0.1520732641, 0.0004257337, -0.4122596383, 0.3933100998, -0.1050594598, -0.0248557199, 0.5440460443, -0.3184197247, 0.4882033765, -0.6124384403, 0.0002094596, 0.3570186794, -0.6429089308, 0.1602320969, -0.7337309122, 0.2601200640, 0.3806566894, 0.1856758744, -0.1001664028, 0.2081150860, 0.3390113711, -0.0663318783, -0.0005179977, -0.5016853213, 0.4465427697, -0.1242555082, -0.0000522863, -0.2089984715, 0.3816185296, 0.3462027311, -0.0948328003, 0.1276018918, -0.2473489642, -0.0582409650, 0.1248866320, 0.0108468719, 0.6828438640, -0.4268310964, 0.2902968228, 0.3433995545, -0.1102233008, 0.1865088642, -0.0642866269, 0.4429591894, 0.1168720797, 0.2656292915, 0.5830779672, 0.2827752233, -0.1055508405, -0.3463099599, 0.0006228423, 0.0494181290, 0.3121449947, -0.1754081398, 0.1746000648, -0.2298084348, 0.0009270966, 0.3821601272, -0.1072354466, -0.0840837583, -0.3146999478, -0.3433285952, 0.0402092114, 0.0521327630, 0.2002427131, 0.1031637043, 0.4869476557, -0.0674099624, -0.1258067042, -0.4371079803, -0.1300796866, -0.5702831745, -0.3564160168, -0.1908111721, -0.0993775278, 0.1116937175, -0.3077557087, -0.0289116744, -0.3078665137, 0.0222863071, 0.1689312458, 0.1957478672, 0.2806547284, 0.0161896665, -0.1552965045, 0.4571433961, 0.0285325423, 0.1486195773, 0.3972109258, -0.4425673783, -0.3255861402, -0.2433845550, 0.0095185079, 0.1753397435, 0.0407019407, 0.0848260000, 0.1474327147, -0.5031992793, 0.3358302116, 0.0009582751, -0.0104907425, -0.2627260685, 0.2156551927, 0.5326996446, -0.0852627382, 0.3362678289, 0.4924242795, -0.2508220375, -0.4565549791, 0.0107152797, 0.3540101349, -0.0001823078, -0.1827096045, -0.3213424981, 0.0236155558, -0.2971249223, -0.0231333077, -0.2815178335, -0.3128150105, -0.3174786568, 0.0008838885, 0.1279723346, 0.0715106949, 0.1236502677, 0.0017060506, 0.1094111502, 0.0949221626, -0.1867298633, 0.0698623955, -0.1314633191, 0.2168971151, 0.1480034292, -0.3849700093, -0.1767812967, 0.2220466733, -0.0003009603, 0.1008535028, -0.1796685606, -0.0028848823, -0.1024326608, -0.0630537495, -0.3259812593, -0.0530974753, 0.0001575990, 0.3968281746, -0.1241764575, 0.1619763374, -0.0143992668, -0.0821931958, 0.2444896847, 0.1824975759, -0.0935955942, -0.0028999427, 0.2702648342, -0.1479585171, -0.2785702348, 0.1287797987, 0.1662127078, 0.3135758638, -0.0394741409, -0.2898955345, -0.1814308763, -0.1922894567, 0.2257228047, -0.1428269297, -0.3762350976, 0.2516451776, 0.1254893839, -0.2610191405, 0.0502076074, -0.3644244075, 0.3517445922, -0.0141192330, -0.3540833592, -0.0322698653, 0.2912167907, 0.1610699743, -0.3345244527, 0.0951721147, -0.0861490294, -0.2694581747, -0.0001656971, 0.1195589080, -0.0113677401, -0.0000929039, 0.1822659522, -0.1447488815, 0.2452265471, 0.0234926268, 0.2286718637, 0.3156482279, -0.1831301749, -0.2705171406, -0.1773536652, 0.2156135887, 0.1147436276, 0.2523995638, -0.3652069867, -0.2723298967, -0.3470834196, -0.0250796918, -0.0655062199, 0.3549154699, 0.0316011496, -0.2246903777, 0.0543906093, -0.0576382987, 0.1551817656, 0.1008933857, -0.0559094623, 0.0002705189, 0.0176172946, 0.0462318808, -0.2353231162, -0.0455909744, -0.1401478946, -0.0845616460, 0.2391571254, 0.1942084581, -0.0558026023, 0.0000520196, 0.0004238269, -0.1564266086, -0.1869667619, 0.2671848238, -0.0607932881, -0.3729795516, 0.0014947950, -0.1152587533, 0.0055072401, 0.2075184882, 0.1026570797, 0.0129965926, -0.1500380188, 0.2264762372, -0.1388947517, 0.1600244343, 0.0860996544, -0.0611116141, -0.0268693641, -0.3588587344, 0.3608322442, 0.1027854010, 0.0022198386, -0.1703944057, -0.0004758980, -0.2345182598, -0.1561115086, 0.1097945943, -0.3471560478, 0.3496973515, 0.0000796673, 0.0857968107, -0.2284181416, 0.1547337621, 0.0009368941, -0.1876887977, 0.3953438401, -0.2125020027, 0.2787883878, -0.2796281278, -0.2983487546, 0.1618742794, 0.0619208515, 0.1281498075, 0.3163820207, 0.0001601047, 0.0804051310, 0.0268177241, -0.0072621019, 0.2651974261, -0.0154800750, -0.3380660713, -0.0780944526, -0.1175228506, 0.2605920732, -0.0880655497, 0.2779228687, -0.2028834075, -0.2873858213, -0.1436686814, 0.1236373931, 0.1351284534, -0.3116051555, -0.2027290314, 0.2092856914, -0.2269800305, -0.3970855474, 0.0745483637, -0.0003139358, 0.2000966668, 0.0585562438, -0.2457619905, -0.0307380855, -0.0004380794, -0.0970337838, -0.0036548886, -0.0043743872, -0.3483188748, 0.3489073515, 0.0207914300, -0.4251592159, -0.1532209665, 0.1878678650, -0.1011989862, 0.4129698277, 0.1668610126, -0.1453665346, 0.0728111342, -0.2064397931, -0.0124168321, 0.2335005999, 0.2959480286, 0.0916616246, 0.0000958814, 0.0075834380, -0.1989160627, -0.0190660134, -0.3170221448, 0.0181043614, 0.3779719770, 0.1509300917, -0.3235202730, -0.2775562108, -0.0030006883, 0.1847455055, -0.2124135047, -0.0626606643, 0.2057471275, 0.2002513558, -0.1434981525, -0.1556016207, 0.0647738725, 0.0780170709, 0.0033431540, -0.0421643928, -0.1540585607, 0.0157768633, -0.3069180548, -0.1961304545, 0.3902146816, -0.2914639711, 0.0806327164, 0.1926521361, -0.0005163649, 0.0084128408, 0.1295784861, -0.1740426123, 0.0000406623, 0.1780654639, -0.0820387378, -0.2609387934, -0.1464811862, 0.0885386616, 0.1802009493, 0.0018727145, 0.3012184799, -0.1759691089, 0.2094178051, -0.2400943786, -0.1960334629, 0.0297413245, -0.1935860515, 0.1881297678, 0.1656735837, -0.2162906826, 0.1375307143, -0.0176242869, 0.3186639547, -0.1523801088, 0.3267760277, -0.0915855169, -0.0717573911, -0.0002568680, -0.1958061159, 0.4261001945, -0.2617514133, -0.1912180185, -0.0771222860, 0.0307283457, 0.1997341067, 0.0759081170, 0.2795503736, 0.0599867739, 0.3293210864, -0.3442431986, 0.2386873066, -0.1307768226, -0.1747856289, 0.0298481043, -0.4016338289, 0.2737740278, -0.2020712048, -0.2320101559, -0.2197811455, -0.3815395832, -0.1451997608, 0.0001946298, -0.2922931015, 0.1456590146, 0.1026579887, 0.1197801754, 0.1888973117, 0.2070681304, -0.0008180015, 0.2854462564, 0.0002312992, 0.1802738160, -0.2683725655, 0.3319726884, 0.4228789508, 0.1342168301, 0.0372308306, 0.1849520504, -0.3099437058, -0.3608643115, -0.0016782614, -0.0460948050, 0.0485975817, -0.3188165128, 0.3856237829, -0.2376457602, -0.0294374954, -0.3422651589, 0.3003537655, -0.3043508232, 0.0900425017, -0.2716583610, -0.1492761970, 0.2802466452, -0.1561155766, -0.2683436573, 0.0554216579, 0.4526373744, -0.0631867722, -0.1778206080, -0.0231246911, 0.1050474122, -0.2394105643, 0.3902376294, -0.0373670682, -0.0221438054, -0.2585650980, -0.0011989592, -0.0272172112, -0.0199541040, 0.1095845997, 0.3765956759, -0.3734245598, -0.3850298822, 0.2632635832, -0.0693413243, 0.0696500540, -0.1892643571, -0.3258983791, -0.2261620015, 0.3418672085, -0.1533196419, -0.0319649354, 0.1624896526, -0.0238213334, 0.2367082536, -0.1025337055, 0.0998087749, -0.2274070829, 0.3752623200, -0.0003639339, -0.2744005024, -0.2839437723, -0.0455411375, -0.3290312886, -0.2489451468, 0.0012490089, -0.2615065575, 0.0776276961, 0.0152484765, -0.2122606188, 0.2209834456, 0.0002305565, 0.2000998706, 0.1437211186, -0.0156321302, 0.0519867353, -0.1271983385, 0.0506684408, -0.2478911877, 0.2736262381, -0.3134928346, 0.0731278211, -0.2476785332, 0.2204151154, -0.2672735155, 0.1212502271, 0.0508345179, -0.0951486081, 0.2640332878, -0.0992787406, -0.3188571334, -0.0440825820, 0.0290792007, -0.3100500703, 0.0981492549, -0.1735933721, 0.2611047029, 0.0153318755, -0.0001500397, -0.0002095398, 0.2380904257, -0.2608316839, 0.0996164903, 0.0020318772, -0.0639881343, -0.0068550003, -0.2387075722, -0.2118210047, -0.2983476520, 0.3557894230, -0.2978530526, -0.3424044549, 0.0308353957, -0.3310882747, -0.0004655229, -0.0001123953, -0.3561987281, -0.5387139916, -0.0948151499, 0.2990788817, -0.0800938234, -0.2939153910, -0.2915425003, -0.2510728240, 0.1056162566, -0.1660301387, 0.0003683441, -0.3322812915, -0.0909635648, 0.0134381512, 0.1979967654, -0.0051930835, -0.2446672320, 0.1167133525, -0.0003584441, -0.1356245577, -0.3928947449, -0.0084758392, -0.1020353734, -0.0494198576, 0.1327556074, -0.2433679998, -0.1260461956, 0.0096067162, 0.0003164065, 0.1070518866, 0.0228658989, 0.3361102343, 0.3198335767, -0.1804314554, 0.1473143399, 0.0542189553, 0.1121252999, 0.0478446782, -0.2481088638, 0.2621496320, -0.3233368099, -0.1760304421, 0.1001319587, -0.2290343642, 0.4037176967, 0.0676121861, -0.0315615982, -0.0145050874, 0.2127204537, -0.2015185952, 0.1981511116, -0.1181268394, -0.0798315778, 0.1092376485, -0.3370799124, -0.2120351195, -0.0882466882, -0.1307899058, -0.2760395110, -0.0080601620, -0.2042156607, -0.0725450069, -0.0000345644, 0.0040763896, -0.1995010674, -0.2453172654, 0.2313696891, 0.1583402306, -0.0174140483, 0.1515574306, -0.1134060919, 0.0073602493, -0.2988825440, -0.0000556419, 0.1230578721, -0.0449265987, 0.2452471405, -0.1489372700, -0.0012241045, 0.2042821646, -0.3392152488, -0.0037078355, 0.0000453838, -0.2605283260, -0.2789493501, -0.2572254539, 0.2071179003, 0.1303693205, -0.1746630967, -0.4380612373, 0.3224734962, -0.0008000178, -0.2166247219, 0.0097581912, 0.0723442212, -0.3958831728, -0.0929322988, -0.0103875501, -0.1547147781, -0.0396521129, 0.0580883175, 0.0858382210, -0.0450834073, -0.2320266366, -0.0344797634, 0.1558451355, 0.0081061693, 0.1888257861, 0.0005959793, 0.0009048678, -0.1341805458, -0.1157023162, -0.0005910046, 0.0001245178, -0.0603435636, 0.2410378307, -0.2331275344, 0.2437075526, 0.0091912560, 0.0932536572, 0.1377622038, -0.0850165635, 0.0228596292, 0.1112398505, 0.0581844188, -0.1616065502, 0.0237135738, 0.1533055604, 0.0581160188, -0.3416559100, 0.1635003388, -0.3110172749, -0.0117744980, 0.1573277712, 0.3849552274, 0.0397026613, -0.0103341537, 0.0000806779, -0.1753342450, -0.0001402571, 0.0565822832, -0.2819166780, -0.1401232928, -0.0002072360, 0.0863874257, -0.0002491066, -0.0220553130, 0.3543461561, 0.1254469156, 0.0494691730, -0.2140659690, -0.0062345047, -0.3225723505, 0.3528387547, 0.2610785067, 0.2661613524, -0.1247968972, -0.0001688163, 0.0005719275, 0.0774429515, 0.3886101246, 0.8267237544, 0.6566712260, -0.6430473924, -0.3770978153, -0.9716687799, -0.7657347918, -0.4133284390, -0.8693892956, 0.4140804708, 0.0016523936, 0.4286500514, 0.2425303459, 0.0054001128, 0.0993203968, 0.0229466725, 0.7165558934, 0.6154747605, 0.4286250770, 0.3509061337, -0.5781670213, -0.2827935219, -0.5816357732, 0.5670515299, 1.0148566961, -0.3190255165, 0.1565057784, 0.0001315659, -0.2438254058, 0.2585712373, -0.0625249073, -0.2971243262, -0.8744777441, -0.1519782841, 0.1719786227, -0.2204265147, -0.4681595564, 0.6985933781, -0.2575044930, -0.3608962595, -0.6078204513, 0.0001467030, 0.2148180157, 0.0000145278, -0.7086778879, -0.0375585221, 0.2316390127, 0.0001536358, 0.7595275640, 0.4911358953, -0.0010153585, 0.1772460192, -0.3307177126, -1.2299662828, 0.0636043474, -0.5632073879, 0.1320929825, 0.8981795311, -0.1100546718, -0.5143911242, -0.6067104936, -0.0273943096, -0.0262142718, 0.0565316454, -0.1284297109, 0.0005236731, 0.0212672651, -0.1619119793, 0.0127049778, 0.0103265140, 0.3295552731, -0.2144437879, -0.3746643364, -0.3125818670, -0.0904044360, -0.3032010198, 0.1049749926, 0.0001421890, -0.1175307259, -0.2881725430, 0.0022551706, 0.2129910886, 0.0463064946, 0.2486395091, -0.1348827332, -0.0312900804, 0.4578119814, 0.0580195151, 0.2004731745, 0.0003642051, 0.2362290770, 0.3548367918, 0.1785246283, 0.3034475148, -0.3712025881, 0.0002663429, 0.0344037004, -0.0276059136, -0.4651448429, -0.1469195336, 0.2676921487, 0.3296559751, 0.5942538381, 0.0019729938, 0.5296110511, -0.0589004569, -0.0490365587, 0.1166558266, 0.0703644007, 0.2084233612, 0.3224079311, -0.2104661614, -0.2056127489, -0.3139073551, -0.4131664932, 0.3055520356, 0.1086720228, -0.2356445342, 0.3654145896, 0.0386429951, -0.2144450545, -0.0451537408, 0.1422171295, 0.2286501080, 0.0025027343, -0.3701878190, 0.0126553578, 0.0313738361};

#endif

#endif
