//Numpy array shape [64, 32]
//Min -0.844649672508
//Max 0.710242331028
//Number of zeros 0

#ifndef W5_H_
#define W5_H_

#ifndef __SYNTHESIS__
model_default_t w5[2048];
#else
model_default_t w5[2048] = {0.1541515142, -0.0132392887, 0.2237073928, 0.3000300527, 0.1236904487, 0.0072146128, 0.0104367100, 0.0553569123, 0.1135452688, -0.0365689136, 0.2722686529, 0.0727306455, -0.1466656625, 0.1809027344, 0.0182009879, 0.0979075432, 0.1139146835, 0.0109058367, -0.0225975811, -0.1103670225, 0.1377256811, -0.0000429858, 0.0047955574, 0.0214912221, 0.0001056227, 0.1942840964, 0.2676353753, 0.0958768353, 0.0174784549, 0.0255571138, -0.0323162228, -0.0041885176, 0.0191933308, -0.0003730473, 0.2738426328, 0.2033680081, 0.0136003848, 0.0049416050, -0.1601355374, -0.0490659326, 0.2239440978, 0.1077667028, 0.0370373018, 0.1278937459, -0.1013201326, 0.0540963560, 0.1545030624, 0.1589490920, -0.0769232661, 0.0406594872, 0.0737321153, -0.1035773084, 0.0998477265, -0.0000139967, -0.0015997816, -0.1165137365, 0.0316247307, -0.0003331090, 0.1042570025, 0.0003001512, -0.0007166147, 0.0320832692, 0.0432692394, -0.3750087917, 0.0587627552, -0.0752130598, 0.0985833853, 0.1561309099, 0.1768253446, -0.0234454777, -0.2324657142, 0.0003090388, 0.0205003768, -0.1108597592, 0.0025255303, 0.1010040268, -0.0141998781, -0.0002814076, 0.2083182931, -0.0296373423, -0.1178332269, 0.0010129520, -0.0001240260, -0.1171849295, 0.0004450638, 0.0000279063, -0.0224496778, -0.0003418353, 0.0004881230, -0.0002581110, 0.0470363870, 0.0001732167, 0.0000052734, 0.1566906124, 0.0586811006, -0.0449720174, 0.0034735880, -0.0103092184, -0.4865075052, -0.2742565870, -0.0946727619, 0.0004426278, 0.3379804194, 0.4080634713, -0.2669896185, 0.4246784449, 0.0739878789, 0.0781835318, 0.2123612761, -0.0002413123, -0.2274531275, -0.0259588268, -0.1840632856, -0.0243417304, -0.1507171690, 0.1451320797, 0.0857834071, 0.0000200134, -0.0037822456, 0.3157501221, -0.0004632698, -0.0211979151, -0.2904153168, -0.0001503979, 0.0000827432, 0.1093021408, -0.0236108303, 0.2930865884, 0.0486002304, -0.0184769612, -0.2491348833, 0.1111377403, -0.0608011782, 0.0310633592, 0.0432770513, 0.0550073162, -0.0668127090, 0.0223390218, -0.0373052135, -0.1870522946, 0.1892680377, -0.0643313155, 0.0007124635, 0.0276853945, -0.0071739187, -0.0993038565, 0.1728861928, 0.0660716817, -0.0363443047, -0.0001029967, 0.1573423892, -0.1526551843, 0.1382188797, -0.0000501661, -0.1838235855, -0.0171734747, 0.1932033300, -0.1151933298, 0.1408779025, 0.0000405704, -0.1257268935, 0.2435935736, -0.0562077500, -0.0488262959, -0.0178578831, -0.0001267341, 0.1758324653, 0.0001233488, 0.1154182628, 0.1691798568, 0.0623855293, -0.1473542899, 0.0172292721, -0.0002252100, -0.5360948443, 0.2667765319, 0.0278527774, -0.1507232636, 0.0004653274, 0.1688465923, 0.0002797998, 0.0000459779, -0.3521671593, 0.1137623340, 0.0257738419, 0.0917965919, -0.3784728348, 0.1773343235, 0.1053095534, 0.0001562320, -0.0000112849, 0.2412746996, -0.1167508960, 0.1105970964, -0.0024064521, -0.3665647805, -0.1382713914, 0.1594377458, 0.1816843152, -0.1386166066, 0.1795043349, -0.1174238920, -0.0048233126, -0.1117599532, -0.0374495648, -0.1364275664, -0.5055859089, -0.0215443149, 0.2087524384, 0.0504970625, 0.1153274402, -0.0821989700, -0.0164014027, 0.0189371761, -0.1311362386, 0.1276420802, -0.0546746328, 0.1562842727, -0.3028787673, 0.0535648726, 0.1633955091, -0.0301376134, -0.6173098683, 0.1621802896, -0.1015903056, 0.2477990389, -0.1221688539, -0.1107765436, -0.0004436501, -0.0001017210, 0.0016704699, -0.1388506442, -0.0343580954, -0.0010919368, -0.0351983570, -0.0355197489, -0.0710947067, 0.0506623462, -0.0551836155, -0.0003148973, -0.0878072903, -0.0041612927, 0.2213491946, 0.1598280817, 0.0109803611, 0.0040250011, -0.0005014533, 0.0000493547, 0.1647730023, 0.1359449923, -0.0362444632, 0.1353339702, 0.0860374644, 0.0014585255, 0.0005491240, 0.0002241746, -0.1229403466, 0.0348510779, -0.0850806013, 0.0242995117, 0.1236366928, 0.2670567930, 0.2255444378, 0.0173866283, -0.1830156296, 0.0392555445, -0.0724797845, -0.0130834347, -0.0331790298, -0.0669983551, -0.3150653839, -0.0609672926, -0.0054790913, -0.1239202470, -0.0002192846, -0.0539770387, -0.1721735448, 0.0002881031, -0.0455880426, -0.1447890848, 0.0836957172, 0.0001563564, 0.1591776460, 0.1004578322, -0.0824494362, 0.0501603596, -0.0063509117, 0.3281430006, 0.0000964350, 0.0001090844, -0.0266045388, 0.1518743336, 0.1540765017, -0.1671254337, -0.1489163339, -0.0392559953, -0.0000347898, -0.0136836823, 0.0070781712, 0.1545362324, -0.0072015552, 0.1918387115, -0.0015183564, 0.1404949278, -0.1249194741, 0.0119395638, -0.0008246528, -0.0303125083, -0.0050700447, 0.0001999544, -0.0030468563, 0.0730740950, 0.0000184186, 0.1014345214, 0.1140648648, 0.2267326862, -0.1076998413, 0.0761194304, 0.1744122952, -0.2223603874, -0.0000691365, 0.1341151297, 0.1815782934, 0.0424760878, -0.0858310983, 0.0157466792, -0.0000966661, -0.0577888340, 0.0004793858, -0.0003011229, 0.0003936598, -0.0178516824, -0.0004723624, -0.0554622002, 0.0015078631, 0.0450758189, 0.0588696338, 0.0235540215, 0.0004137893, 0.1327843666, -0.0000217917, 0.0000020156, -0.0037251993, 0.0079152836, -0.0461874194, 0.1094937399, 0.0002194868, 0.0046995613, -0.1271380335, -0.0005774302, -0.0008816957, -0.0802528784, 0.1797660589, 0.0526805855, 0.0387971811, 0.2913846970, 0.2160316706, -0.0003125487, -0.0974185616, 0.0154348761, 0.1205701232, -0.0669385642, 0.1012243107, 0.0826261267, -0.0185863487, 0.2085580975, 0.2238382250, -0.1086833999, 0.1410479844, -0.1016672179, -0.0000676497, -0.0037188660, 0.0487946570, 0.0001645814, 0.2274523228, -0.0508434772, -0.0571860820, -0.0063654315, 0.0076974309, 0.0309476536, 0.0004057618, 0.1783704311, 0.0219176300, -0.0976122469, 0.1164534539, -0.0002418948, 0.1544557214, 0.0906834751, 0.1011423841, -0.0016021720, -0.0321363509, -0.1275786906, 0.0532950871, -0.0095294695, 0.0867168382, 0.0576552302, 0.0473622456, 0.0003740454, -0.1528729200, 0.0005697156, 0.2153922021, 0.0256284438, -0.0743112564, -0.0662920997, 0.0755429342, -0.0000788263, 0.0569891967, 0.1381291449, 0.0058686351, 0.1128836796, -0.0000358448, 0.0004318408, -0.0501921438, 0.0641785562, 0.0070632612, 0.0006048066, -0.0727552325, 0.0009773374, 0.1591863930, -0.0005604222, 0.0001730261, 0.0005178525, -0.0005227279, -0.0000360515, 0.1912190616, 0.0024844196, 0.0192725528, -0.0039824634, -0.0001640723, -0.0008132185, 0.0285709929, -0.0424205810, -0.0002292605, -0.0092055863, 0.0324861035, 0.0924052298, 0.0150381103, -0.0002293010, -0.1167999431, 0.0653423667, -0.0002290775, 0.0002627832, 0.0123870671, 0.0006204341, -0.0265356041, 0.0022041767, 0.0576020144, 0.0025094859, 0.1112879068, -0.0140391625, 0.0010911801, 0.0280827247, -0.0007219592, -0.1039980724, -0.0000612186, 0.0294323731, -0.1139793620, 0.2781509459, 0.3763483763, 0.0768852830, -0.1623888463, 0.0390305407, 0.2987244725, 0.0000820791, -0.0786321759, 0.0004898012, 0.1483145952, 0.0004301657, 0.0006227593, 0.0003224381, 0.0001351991, 0.0239188876, 0.0717435330, -0.0514053516, 0.0330544412, 0.1134507135, 0.0002326590, 0.1044063941, -0.0147877214, -0.0002360012, -0.1418096870, 0.0826845095, -0.0301863663, 0.0529075004, 0.0141701540, 0.1842579395, -0.1325460374, -0.0653219819, 0.1090268269, -0.0648550913, 0.0011257302, -0.0016056260, -0.1546672434, 0.1508763731, -0.0710676312, -0.1652934849, 0.0002905175, -0.0745136887, -0.0343792960, 0.1600904614, 0.0016117493, 0.0000390115, -0.1213635728, -0.0138042439, 0.0643662065, 0.0008498598, 0.1567029357, 0.0001787174, -0.0793904588, -0.0066103218, -0.0002620237, -0.1260606796, 0.0547283404, 0.1159411222, 0.2125019431, -0.0439582057, 0.1514299214, 0.0243239757, -0.0924681947, -0.0046505444, 0.2423769236, -0.0013670225, -0.0415272973, 0.2658485472, -0.2507576942, -0.0086842347, 0.2268470973, 0.1000967473, 0.0007472115, 0.2101273537, 0.0007580164, 0.0000235144, -0.0329817906, -0.0000359605, -0.0023994383, -0.0105414838, 0.0000862149, -0.1024164855, -0.0003037130, -0.0231280699, -0.0414524972, -0.0596521087, 0.1277198493, -0.1436848193, 0.1381646097, 0.4662733674, 0.3930896223, -0.0008854578, 0.1817129254, 0.1344782412, -0.0342206769, -0.3582896292, 0.2630223930, -0.0641961992, 0.0442526378, 0.1576742232, -0.2230053693, 0.1705508679, 0.0706468374, -0.1276776046, 0.1998073608, 0.0018547742, -0.1145517454, -0.0204566810, 0.3612488508, 0.0003908667, 0.3011908531, 0.3368091583, -0.2889336944, 0.2682384551, 0.2354938835, -0.0001847813, 0.0052480390, 0.1729387939, -0.0007496376, -0.0576953217, 0.0286826864, 0.4286766052, 0.1524823755, -0.0030382047, 0.0000097095, 0.2792463601, -0.1470972747, -0.2299800664, 0.1218855232, -0.1221251115, 0.1625920236, -0.0000514345, 0.0006905530, -0.0374663770, 0.0607952103, 0.1221350655, 0.0000098281, 0.0877777115, 0.2356850803, 0.0007441572, 0.1984015554, 0.0000955052, 0.0671979561, 0.2395133376, -0.2095547616, 0.0050955443, 0.0000481946, -0.0105282282, 0.1391348988, 0.0005082240, -0.0000396063, -0.2108870000, 0.0003092366, 0.1455236673, 0.2454024404, 0.1008321866, 0.2370385379, -0.1141099185, 0.0001614481, 0.0841832682, 0.1723150909, -0.0696346238, -0.0474727079, 0.1545995325, -0.0484083854, -0.0297942720, 0.0137901623, -0.0977410972, 0.1610800773, 0.0295293052, -0.1143137738, 0.0888884515, -0.0183237772, -0.0003566334, 0.0336758345, -0.0002291378, -0.0065331548, 0.0290682577, 0.1121403202, 0.1653354913, -0.0013007927, 0.0240114834, -0.0075785881, -0.1206466183, 0.0002136019, -0.1070460081, -0.2521282732, 0.2784279585, 0.0003337015, 0.1270239204, 0.1521337628, -0.0289494991, 0.0995323732, -0.1293667555, 0.0023811420, 0.0005476253, 0.1312041879, 0.0850454718, -0.0110722352, -0.0003383644, 0.0326107256, 0.0005145838, -0.2131479681, 0.0525796041, -0.0106257070, 0.0000684600, 0.0078196349, -0.0026911893, 0.0929948464, -0.1736145169, -0.0000680766, -0.0000357399, -0.0001368821, -0.0000250406, -0.4695384800, 0.1199626401, -0.0000717584, -0.1210106388, -0.1086559072, 0.0814704970, -0.0008055081, -0.2142594904, 0.0005843450, -0.0004605201, -0.1898549050, 0.1183192432, -0.0441698693, 0.0246205423, 0.0008044358, 0.0215211473, -0.1149736866, 0.0989432558, -0.0784732476, -0.0589139052, -0.0431114063, 0.0558415428, -0.0802626535, -0.0000584715, 0.1339509636, 0.0270385630, 0.0003641780, 0.0001602536, -0.0007048476, 0.0005342957, -0.0236567035, -0.0004011843, -0.0684424862, 0.0346427932, -0.2135353535, -0.0347391926, -0.0260668099, -0.1278285831, 0.0012406009, -0.0002643333, 0.1781604588, 0.2028294504, -0.2011289001, 0.1690579653, -0.3383412659, 0.0129117304, -0.0015967748, -0.0914260671, -0.0866852552, 0.1434397101, -0.0537202694, 0.0002030692, 0.0000926037, 0.1465708315, -0.0348377638, 0.0003235412, -0.0011282116, 0.0965899453, -0.1482667178, 0.0007431768, 0.0106191607, 0.1072931066, -0.1357389539, 0.1993297935, -0.1951665580, 0.1349165142, 0.0608844198, -0.2160100192, 0.0587351285, 0.2021263540, 0.0293314718, -0.0890472308, 0.0024880026, 0.1468649656, 0.0950819477, 0.0302469190, 0.0238093827, 0.2195178568, -0.1277588457, -0.0002332747, 0.2710014284, 0.0412755758, -0.0609843470, 0.1489517987, 0.0002143409, -0.0649876148, -0.0012293872, 0.0000174264, 0.2419887334, -0.1682117879, 0.1444945484, -0.1730496436, 0.2386646122, -0.0277099311, -0.1060515046, 0.0913429260, -0.0457641296, -0.0858025029, 0.0400046185, -0.1511491686, 0.2664797008, -0.0743820816, -0.0231774393, -0.0002558960, -0.4880304039, -0.0885386467, 0.0439713970, 0.0917682201, -0.3699387014, -0.1096390039, -0.2152429223, -0.2949757278, 0.1373163462, -0.1155219451, 0.1655960381, 0.2190609574, 0.0005734150, 0.1379545331, 0.0109215183, 0.0005725101, -0.3507786393, -0.0011231640, 0.0113957422, -0.0103520257, 0.1521845013, 0.0721471012, 0.0801310241, -0.1666981727, 0.3249364495, -0.3184715509, 0.0934597105, -0.0002563505, -0.1355693042, 0.2520656884, 0.1765738279, 0.0055366261, -0.0695842505, -0.0513574332, 0.0361983404, -0.0856432915, -0.0306638256, 0.0063941479, 0.0743149221, 0.1928637922, -0.0252964608, 0.0690933466, -0.1014835611, 0.1044785082, 0.1854169518, -0.0061506494, -0.0054888874, 0.0000618766, 0.0009492124, 0.0975708738, 0.1747562438, 0.0583555810, -0.0335469432, 0.0208736435, -0.1164776310, -0.0149431480, -0.0678281710, 0.2009842843, -0.0823486298, 0.0301207807, 0.0857950300, 0.0769126788, 0.1069530845, -0.0804097801, 0.0423881784, -0.0836699605, 0.1196019948, -0.0001707033, 0.0345568024, -0.0001020249, -0.0003109902, 0.0619566068, 0.1804373264, -0.0723535046, 0.2361474335, -0.2463486642, -0.0339174494, -0.0121726161, -0.0608063117, 0.0004822779, 0.1823371798, 0.2549466491, 0.1167367548, 0.0638536215, -0.0000684713, 0.0001067953, 0.1044999138, -0.0067443675, -0.1661250591, -0.1594049782, -0.1594706178, -0.1212468222, -0.0661392212, -0.0098589528, 0.1391570866, -0.0381043963, -0.0303566307, -0.0161870737, -0.0162385385, 0.1492176950, -0.2026881576, -0.0844104066, 0.1673063338, -0.0001727831, -0.0857442543, -0.0000521532, -0.0060544834, 0.2000779510, 0.0005087071, 0.1293758005, 0.2859493792, 0.0006515649, -0.1749509573, 0.2185720801, 0.0483183898, 0.0049134945, -0.0374794975, 0.0003433940, -0.1112637594, -0.0000697067, 0.0141204279, -0.0730220824, 0.0003265141, -0.0046432773, 0.2879795134, -0.0256337393, 0.0827305168, -0.0001138951, -0.0173650533, -0.2923333347, 0.2354026437, -0.4008953273, -0.3732810616, -0.0898936316, 0.0760478526, 0.0963502675, -0.0719475672, -0.3804746568, 0.1903533489, 0.0174227506, -0.2081709653, -0.0052723312, -0.1075271219, 0.0055020060, 0.1706411988, 0.0192547962, -0.2431256771, 0.1203010380, -0.2396954298, 0.0091188010, -0.2911249101, -0.4052791297, -0.1605980098, 0.0665043220, -0.2048542649, 0.0006452115, -0.0687875897, -0.1567737162, 0.0024405916, -0.0001258978, 0.0000569804, -0.0548175164, -0.0002105778, -0.1222636998, -0.0122001544, -0.1814319640, 0.0510956533, -0.0963011086, -0.0000462712, -0.2694593370, 0.2840267718, 0.0005776868, 0.0008779519, -0.0327943005, 0.3379422724, -0.0000132727, -0.0259190556, -0.0004417673, 0.0148106981, -0.0003764210, -0.0008849442, -0.0003098700, 0.0003257508, -0.2304854989, 0.0845640004, -0.0712354630, 0.1060593575, -0.0078590577, 0.0658747628, 0.1933007091, 0.0388207436, 0.0004113366, -0.0869995803, -0.0524669960, 0.0008976325, -0.2748933733, -0.1953667253, 0.1660533845, 0.1440947205, 0.1589109451, -0.1156639457, 0.0006762199, 0.0005181205, 0.0890368223, -0.1297297031, -0.0427011549, -0.0489705503, -0.0000288831, -0.0070659239, -0.0601240247, 0.1466330588, -0.1170235053, 0.0503397286, 0.0001591546, 0.0540984124, 0.0469447188, -0.2250754833, 0.0027035321, -0.0011353784, -0.0519764274, -0.1189753190, -0.0012140715, -0.0442350954, 0.0005846518, 0.0514802635, 0.0002125965, -0.0309014693, 0.0422297418, -0.0259241648, 0.0000397518, 0.0377685055, -0.0005681654, 0.0001811773, 0.0976274908, -0.0662695840, -0.1469941586, 0.0007328676, 0.0295954738, -0.0433583297, 0.0000827171, -0.0094901547, 0.0001120241, 0.0001983262, 0.0000938263, -0.1137402579, 0.0005947259, 0.1631310433, 0.0004650868, -0.0355075374, 0.2498480678, -0.0283321086, -0.0349518247, -0.3702559173, -0.0296949670, -0.2367270142, -0.0001091081, 0.1704701632, 0.2743868232, -0.1060120016, 0.0863866284, 0.0041904147, -0.1073699817, 0.0237842873, -0.1114856452, -0.1767953783, 0.3156145215, -0.1539171785, 0.0000323808, 0.0765316859, 0.0007753195, 0.0143957762, 0.0001536126, -0.0520747937, 0.2908402979, 0.0239237305, 0.0006601923, -0.1132378653, 0.0007665732, 0.0701500550, 0.0000861097, 0.0001931997, 0.4037565589, 0.1371146888, -0.0148155484, 0.1936557442, -0.0510456748, 0.1086999252, 0.0266659856, -0.1534123570, -0.1407992691, 0.0151540041, -0.0467036217, 0.0877582282, 0.0556871556, 0.0697970092, -0.0136490446, -0.0664609447, 0.2387656420, 0.0004283961, 0.0012223611, -0.0218633525, -0.2655172348, -0.1830475777, 0.0003627994, 0.0577673465, -0.0221335515, 0.1102241427, 0.1174362078, 0.1210296676, -0.0119601339, -0.2465382516, 0.0688598678, -0.1208008826, 0.1601965576, 0.0004925242, -0.0694086328, 0.0594373010, 0.2032422721, 0.0226954892, 0.0126628438, -0.0000647117, -0.0004239078, 0.2162159830, -0.0339272358, -0.0125056263, 0.0008446630, -0.0391420275, 0.0095635979, -0.0004156033, 0.0003944385, 0.0002419336, 0.1024850085, -0.0086996341, 0.0121060358, 0.0098662367, 0.0000111965, 0.0938615352, -0.1527418494, 0.1113952473, -0.0671121031, -0.0000764298, -0.0000007897, -0.0437960289, 0.0000471730, -0.0007358684, 0.0667833462, -0.0000774532, -0.1259500533, 0.1406271756, -0.0000670795, 0.1398711503, 0.0456110872, 0.0036077937, -0.2164034396, 0.2409766465, -0.0727469251, -0.1695983559, 0.0105399927, 0.2093604356, 0.1446640193, -0.2250510901, -0.1325691789, -0.0014106954, 0.0975890532, 0.1815854907, 0.0850987211, -0.1026675850, 0.0176707227, 0.0968968496, -0.2353294939, -0.0322796106, -0.0921264067, 0.0000178448, -0.0001491338, 0.0000315422, -0.1150102317, -0.2101218253, 0.2002809197, -0.1814422458, -0.0004227241, -0.2584574223, -0.0727470443, -0.0286705606, 0.0002612365, 0.0164322015, -0.1265596747, -0.1352956146, -0.0980891064, 0.0569218695, -0.3043314517, 0.1004958078, 0.0000476728, 0.0001097320, -0.1265492439, -0.0003045778, -0.0870264322, 0.0683793873, 0.0853328258, 0.1849163622, 0.0001084244, 0.0017070514, 0.0128479945, 0.0002906767, 0.1818017513, -0.0958279744, 0.0007119161, 0.0012783968, 0.0068896506, -0.0432925411, 0.0441230573, -0.1821326613, -0.1230244488, 0.0827607065, -0.0081254346, 0.1058771983, 0.0001459498, -0.2074576467, 0.1693487316, 0.1184200346, -0.0764733553, 0.0081784530, -0.1380196661, 0.0169517510, -0.2685995102, 0.0060786847, -0.0646265671, 0.2755101025, 0.2021769285, 0.1649075747, 0.1604588926, 0.2457563579, 0.0003937830, -0.0008489696, 0.0599271767, 0.2417794913, 0.1035067961, 0.0624052659, -0.0628803745, 0.0106460797, -0.1785652488, 0.3359912932, -0.1208683476, -0.0025586390, 0.3322933614, -0.0555820689, -0.2179108858, -0.0794098824, -0.1120428294, -0.0000048062, -0.0000135291, -0.0670766383, -0.0168524608, 0.1066303104, 0.0095513873, 0.0002472881, -0.1479473710, 0.0009221854, 0.0001035157, -0.1157403663, -0.1557122022, 0.1833556741, 0.1214848459, 0.0770370215, 0.0000402039, 0.0016959724, 0.2319258898, 0.0002608877, 0.0005079292, -0.0004462590, 0.0000767650, 0.2947916985, -0.0005773156, 0.0039935168, -0.0157164782, 0.0366374180, 0.0793397874, -0.0354176164, 0.0434553586, -0.0508598834, 0.2146303207, 0.2594895661, 0.0001571377, -0.0257051568, 0.1316297799, 0.1642093360, 0.0002686710, 0.1918191314, 0.0001034562, -0.0071498263, 0.0003690263, -0.1576544791, -0.0914219916, 0.0658871457, 0.1595053822, 0.0326827988, 0.0000770561, 0.1099264622, 0.1228329539, -0.1459025294, 0.1875126362, 0.0512473509, 0.2105241418, 0.1687760502, 0.0698652864, -0.0063254833, 0.2043106705, -0.0893268734, -0.0806678906, -0.3035232425, 0.0040925541, -0.2930887938, 0.2017889917, 0.0582482815, 0.0008583769, -0.0374058671, 0.2369727492, 0.0802399591, 0.0154320719, 0.0321454853, 0.1570818573, 0.0007716726, -0.0072270758, -0.2050256580, -0.0936355442, 0.0125700636, 0.4075612426, -0.0006241930, 0.0003563039, 0.1893867403, 0.1704711318, 0.0221190471, 0.0138147259, -0.1195818782, 0.0193814673, 0.0012801772, -0.0001639043, -0.0140511878, 0.1861392260, -0.0007740030, -0.1357484609, 0.0278417841, -0.0005222173, -0.0225665979, -0.0564528815, -0.0070840698, 0.0041706515, 0.1505299658, 0.0002997046, 0.0007184246, -0.0993766934, 0.0555875339, 0.0001544330, 0.0205735490, -0.1362110972, 0.0842046216, -0.1296667010, 0.0008816415, 0.1000115350, 0.1240412146, -0.0001799434, -0.1553192884, 0.1112110689, 0.0002556979, -0.0000869630, -0.0000735571, 0.0000157881, 0.0008176024, -0.0004134224, 0.1846570522, -0.0003724532, 0.0001736705, -0.2878685594, 0.1613172293, 0.0898741931, 0.0784223154, -0.0002273711, 0.0000468417, 0.2061091214, -0.1415808201, 0.1935144067, -0.0095840963, 0.0894096270, -0.0090456530, -0.0000949043, 0.0410766527, -0.0002417210, -0.1583032012, 0.2677411735, 0.0003851054, -0.0003996271, 0.0001631607, -0.0000408811, 0.1635689437, -0.0011791722, 0.0000638011, -0.0726107061, -0.0468134694, -0.0005073799, -0.0303045455, 0.0717599988, 0.0521904826, -0.0347228609, 0.0654008687, -0.0263711456, -0.1114297360, -0.1563614309, 0.0855721906, -0.0300919935, 0.0114618419, -0.0162329096, -0.0002063819, 0.0001803427, 0.0535827652, 0.1087753698, -0.0002398435, -0.0774315000, 0.0979168117, 0.0935868546, -0.0500208475, 0.1189101934, -0.0605046973, -0.0743859485, 0.1122466028, 0.0001359658, -0.0003704715, 0.1190449670, -0.0638084784, 0.0501147807, -0.0743937045, 0.1414608806, 0.0001169887, -0.0128563615, 0.0633910000, -0.0003853041, -0.0005034488, 0.0853618234, -0.1778794378, -0.0047506285, -0.1382590383, 0.0886840373, 0.2952089310, -0.0974955931, -0.0028184226, -0.1528585553, 0.0243717600, 0.0042995433, 0.2588171363, 0.1367245317, -0.3048503101, -0.0883819386, -0.1471529454, 0.0002398383, 0.0005084142, 0.0139687099, -0.0109416181, 0.0000690248, 0.0013055566, 0.1685487628, 0.1926097870, 0.0000563233, -0.1052010432, 0.0694053620, -0.0507527143, 0.0001030279, -0.8446496725, 0.3660421371, 0.0171267278, -0.0406339690, -0.1823971272, -0.0001022481, 0.0105911456, -0.0497461893, 0.0732172132, 0.1729320735, -0.0456891805, -0.0454153307, 0.0828980058, -0.0049285488, 0.1745380908, -0.2029696405, -0.0785331056, 0.0937893987, -0.0269145519, -0.0064347251, 0.0984296948, 0.0168850552, 0.0123516750, 0.0004045547, -0.1294340342, -0.0351829939, 0.0254900400, 0.0066179349, -0.0004753039, 0.1567115337, 0.0006395273, 0.0075565698, 0.1448542029, -0.0364865139, 0.0003663006, 0.0140180606, 0.1970921308, -0.0431283601, 0.2589218915, -0.4443812072, -0.1505640149, -0.0005188172, 0.0453178883, -0.0706877932, -0.2150161266, 0.0490083806, -0.0388458669, -0.0000656526, 0.0689912587, -0.0073658824, 0.0874774009, 0.1811480820, 0.0006475035, -0.1154217571, -0.0160442796, 0.0000305845, -0.0574471988, 0.2746165097, 0.0097604049, 0.1391633600, -0.0684727728, 0.1204728112, -0.2690079808, -0.0849850029, -0.0657336712, -0.1805131137, -0.0008022505, -0.1656460017, -0.0442179330, -0.0001389372, 0.1464555115, -0.1116516665, -0.0127613936, -0.0332148932, 0.1331138909, -0.1437942833, 0.1878289133, 0.0000286935, 0.0254138727, 0.1106995046, 0.0847410262, 0.0001404158, 0.1610885113, 0.0005030792, -0.1354972720, 0.0697292387, -0.0499699488, -0.0000277301, 0.0318966433, 0.1461529136, 0.0779231265, 0.0286186635, 0.1548244059, 0.0002428832, 0.1376772970, 0.0002356027, -0.1372001320, 0.0017048796, 0.1240862682, 0.0240605474, 0.0838146657, -0.0006075802, 0.1999107301, -0.1441781223, -0.0363780968, -0.1195350066, 0.1761709005, -0.0185367670, 0.0035903824, 0.2186441272, -0.1878956109, 0.0007997946, 0.0895385519, 0.1373958737, 0.0059171407, 0.0004123342, 0.0891528428, 0.0513459556, 0.1221193895, 0.0003379445, 0.2320560217, 0.0016000412, 0.0116320280, 0.0027806340, 0.1888164133, -0.1238919124, 0.1214600652, 0.2444834411, 0.1603791565, -0.2034384012, 0.1536626667, -0.4220452607, 0.0573538654, -0.1791058034, -0.0128055057, -0.6293465495, -0.1371022016, 0.2458500415, -0.0052613146, 0.2131083012, -0.0611097142, 0.0120281363, -0.0080292448, -0.0938197970, 0.2943904400, 0.1767150313, 0.1123827621, 0.1859916747, 0.0489639938, 0.1849715263, -0.1011992767, 0.0002729284, 0.0012102850, -0.0914637223, 0.0002620285, -0.0698189288, -0.0196459144, -0.0242557395, -0.0498937517, 0.1867806315, 0.2907374799, -0.3583411872, 0.2196488678, 0.0386188254, -0.0754859298, -0.0171886925, -0.0387894809, 0.1103508696, -0.0090445373, -0.0778840929, 0.0001984441, -0.0011957274, -0.0468832962, -0.0010046937, 0.2026555091, -0.0001862664, 0.1401583701, 0.0365184508, -0.1037536263, 0.0652661249, 0.0003236215, 0.0427809209, 0.0723366961, 0.0000283109, 0.0010361555, -0.1789905280, 0.1336053908, -0.0279302597, -0.0202699844, -0.0336722508, -0.0182946902, 0.1470675468, 0.0536949858, 0.0000864771, -0.0757608786, -0.0000699851, 0.0182141177, -0.0696947426, -0.0932447761, 0.0004700873, 0.0069305971, 0.2375742644, 0.0637866557, 0.2161957920, 0.0000471702, -0.1057602689, -0.1441453546, -0.0017466751, 0.0585684478, 0.0287271235, 0.0587411895, 0.2065856159, 0.0006618259, 0.0766706765, 0.0017727994, 0.0001864655, 0.0945584327, -0.0135253659, -0.0661794618, 0.0006711018, 0.0043361639, 0.2161846608, 0.0982726142, 0.1801873893, 0.0389738493, -0.1294985265, 0.0696749091, 0.0671567023, -0.0517674387, -0.0318686590, -0.0073724352, 0.1677207351, 0.0966805145, 0.1830318123, -0.1092342734, -0.0368233696, 0.1448767185, -0.0120894089, 0.0751383230, 0.0807965845, 0.0511167459, 0.1746060997, 0.1685300320, -0.2146860808, -0.0001248346, 0.0135327158, -0.0006552184, 0.0004117167, -0.1178235039, 0.0374128222, 0.1753446460, 0.0073169614, -0.1682233959, -0.0738535523, 0.1304732412, 0.0057360008, 0.0289082211, 0.0226820689, -0.6599718928, -0.0296558533, -0.3507750630, -0.1078401580, -0.2650333345, 0.0565053485, 0.4524402320, -0.0257219691, 0.0686552301, 0.0848868117, -0.0189993475, -0.1892675310, 0.1617464870, -0.0000505562, -0.6746767759, -0.0336611681, -0.0032439705, -0.0632915050, 0.0172530152, 0.0198597442, 0.0004550920, -0.0000197222, -0.4297639132, -0.1448963881, 0.2073467374, -0.0683034286, -0.6290945411, 0.2160802037, 0.1207237616, -0.0001694210, 0.0000250711, 0.7102423310, 0.0035276003, 0.0003373659, 0.3650914133, -0.2779841423, 0.0036453148, -0.0000186281, -0.2421642393, -0.2129471600, 0.0817947537, -0.0404213667, -0.0001360246, 0.0001527164, -0.0594066046, 0.0007135592, 0.0003423260, 0.0611703284, -0.0001059988, -0.1079489812, 0.0004791175, -0.0691044331, 0.1375254244, 0.0000721037, 0.0251550451, 0.1961207390, -0.2968645096, -0.0000566883, -0.0736939535, -0.0002027920, 0.0003198026, -0.2476833761, 0.0002194887, -0.0889962465, -0.0193214379, 0.2117786258, -0.2583455741, -0.1120649204, -0.2475612015, 0.1310026944, 0.0780933052, -0.1547209918, -0.1294658631, -0.1199652180, 0.2545350790, -0.1157275140, 0.0455761775, -0.1746205688, -0.0007891216, 0.0001212819, 0.0001830521, -0.0175295323, 0.0001036530, -0.0331022702, 0.2174758762, 0.0000696483, -0.0002919449, 0.0849813148, 0.0323990546, 0.0397631526, -0.0904804915, 0.2548060417, 0.1406973749, 0.1406643391, 0.0951579660, 0.0227179676, 0.1373811811, -0.0000289763, -0.1251323819, -0.0000343287, 0.0001001221, -0.0704705939, 0.0328416377, 0.0178079996, 0.0004181875, 0.0971190855, -0.0312980041, 0.0496051535, -0.1643068045, 0.0002203138, 0.0510634296, 0.1256051511, -0.0000589830, 0.0116654951, 0.0450841971, 0.0279021189, 0.0833981186, 0.0003232845, -0.0501883216, 0.1410385817, 0.0003826993, -0.1098378971, 0.0000801939, 0.0160300732, 0.0175841339, -0.0002595852, 0.0763097778, -0.0839761272, 0.1611996889, -0.1095964387, 0.1156760752, -0.1765983850, 0.0203979779, 0.0000217109, -0.7549321055, 0.0049226573, 0.2793439031, 0.0154934926, -0.3986194730, 0.1072698906, 0.0020667764, -0.1949936301, 0.4874606729, 0.1512521356, -0.0099688638, 0.0572859682, 0.1751539111, 0.0000560692, 0.3087383509, 0.0005131621, -0.2231123596, -0.1062229350, 0.0006877001, 0.0820600167, -0.2025943398, -0.0007661551, 0.2272229046, -0.0431605838, 0.3271254897, -0.3143062890, -0.0605441593, -0.0011089011, 0.0785583630, 0.1146318913, 0.0204214361, -0.0674160495, 0.0002282993, -0.0860607550, -0.0179392044, -0.1776286960, -0.0972531289, 0.1236907318, -0.0867522955, 0.2318858802, -0.1463718712, -0.0106925201, 0.1489861012, 0.0007986943, -0.0040001026, -0.0911255479, -0.1771872193, 0.0001211309, 0.0235777274, -0.0080918046, 0.0512747839, 0.1083461419, -0.0016306804, 0.0968025848, 0.0944391564, 0.0602033138, -0.2517151535, 0.2874700427, -0.0578982122, -0.0002072550, -0.1573353857, -0.0526099019, -0.1533364505, 0.0003632352, 0.0554851331, -0.0003629814, -0.0900296345, 0.1292411238, 0.0681339726, -0.0279824473, -0.0221242160, -0.0145409536, 0.0005646417, -0.0879943147, -0.0532259867, 0.0810214430, 0.0437099896, 0.0731852427, 0.1721110046, -0.0007602174, 0.0527854860, 0.2205333859, 0.0054081813, 0.2037677616, -0.0004555908, 0.1181314662, 0.0153194210, 0.0580762476, 0.0606156290, 0.1124730855, -0.0276529621, -0.0025163356, -0.1619169563, 0.1258428544, -0.2111202478, 0.0000928868, 0.1703698784, 0.0856511816, -0.2066233158, 0.1204421520, 0.2138765901, -0.0009082702, 0.1810922325, 0.0856421590, 0.0540505610, 0.2401396930, -0.0191919468, -0.1198430359, 0.0000792451, 0.0865201876, -0.0007961558, 0.0002723230, -0.2062912285, 0.0857593641, -0.1264476478, 0.1231316328, -0.1593078673, -0.0000116020, 0.0652740598, 0.0065060849, -0.0006965105, 0.0666326880, 0.1393819302, 0.1251081824, 0.1602627486, -0.0178310536, -0.1583797038, 0.0417400077, 0.0001950888, -0.1921187937, 0.0006902694, -0.1995776892, 0.1840307862, -0.0018771219, 0.0632638112, 0.0507983752, 0.0011181083, 0.0201687682, 0.0003383681, 0.1188678518, -0.0002676851, -0.0246501304, -0.0061811139, 0.0000434841, 0.0062645981, -0.0214159284, 0.0170233436, -0.0003426206, 0.1549914628, -0.0010930944, 0.1873878837, 0.2481658012, -0.2322876751, -0.0195174161, -0.0004653789, -0.0583970994, -0.1558706015, -0.0031175166, -0.2238305211, -0.2460742593, 0.0867354795, 0.3805764019, -0.1524158418, 0.0434495471, 0.1425623000, 0.0590953976, -0.0463969223, -0.0003261435, 0.0612518676, 0.2904973328, -0.0547528677, 0.0006080953, 0.1047186702, 0.1336120218, -0.1119967550, 0.0005652389, 0.1135904714, 0.0001491541, 0.0000294369, 0.0073791598, -0.0004593877, -0.0033164930, 0.0001865969, -0.0000999367, 0.2429021746, 0.0374166593, 0.0540844910, 0.0135940518, -0.0603456236, 0.1251723021, -0.0003070227, 0.0004670092, -0.0012542967, 0.2967649102, -0.0493136011, 0.1079876125, 0.1866483986, 0.2486225665, 0.0000393761, 0.0423354730, 0.0995192230, 0.2327622771, 0.0000706112, -0.0569271594, -0.0002688113, 0.0318307392, -0.1667842120, 0.0000264489, 0.0422690883, 0.0596000254, 0.0059498954, -0.0308073945, 0.0932056010, 0.0007198071, -0.0001513953, 0.2018852085, 0.1654618680, -0.0026436721};

#endif

#endif
