//Numpy array shape [32, 32]
//Min -1.308850884438
//Max 0.688567996025
//Number of zeros 0

#ifndef W8_H_
#define W8_H_

#ifndef __SYNTHESIS__
model_default_t w8[1024];
#else
model_default_t w8[1024] = {0.0431139395, 0.0514376238, 0.1590836197, -0.0586561263, 0.0001526403, 0.0212904364, 0.1454682946, -0.2007654011, -0.2346075475, 0.1008267030, -0.0003817350, 0.0001613273, 0.2253965586, -0.4396148026, -0.0451469310, 0.0697199479, -0.0000233234, 0.0294745564, 0.2369683385, -0.0120162377, 0.4432287812, 0.0004623621, 0.0001900018, -0.0000108292, -0.0000208271, 0.0006323387, 0.3153679967, 0.3320478797, -0.2709982693, -0.0164431892, 0.1864382625, 0.3263933659, 0.2375673354, -0.0657668784, -0.0435720198, 0.2755318880, 0.1861206740, 0.0005196545, 0.0908094794, 0.2558357418, 0.2608350515, -0.5594969988, -0.0755485445, -0.0002506210, -0.0001743009, 0.0568906814, 0.0181702524, 0.0171179641, 0.2378491163, 0.0894828439, 0.1329240054, 0.1221293509, -0.0471887514, -0.2890611291, -0.0172790103, -0.0000100388, -0.0020182091, -0.2379751652, -0.4500970244, 0.0002713467, -0.1662583947, -0.2040217221, -0.2313646674, -0.2756238580, 0.3479887247, -0.5704770684, -0.7212981582, 0.2805896997, 0.1434611827, 0.1182763949, -0.6024056673, 0.3703393936, 0.0425565802, -0.1732660979, 0.3216785789, -0.0776051208, -0.6859229803, 0.2920346260, -0.6404200792, -0.2008367032, 0.5543319583, 0.6197229028, 0.2061491907, -0.9292058349, -0.3856183589, -0.2945668995, -0.0001886082, 0.0000029288, -0.5804497004, -1.0004404783, -0.8374073505, 0.2144192308, 0.4498897493, -0.3177691102, -0.1593395323, 0.0952403918, -0.3489548564, 0.0391758196, 0.2115135789, -0.2698701024, 0.0002774440, 0.1678118408, 0.0002715833, 0.2280889452, 0.0806635618, -0.0084559368, 0.1659858525, -0.0004615892, -0.0003523225, -0.0315181017, 0.0234194063, 0.2145291269, 0.0502839759, -0.4606354237, 0.1219521090, 0.3141789138, 0.2898940146, 0.3336028159, -0.0519449189, -0.0000162193, 0.4105592370, 0.4265675843, 0.4116076529, -0.0003529945, -0.1963509470, 0.0687021390, 0.0769080445, -0.0000318527, -0.0002338316, -0.0501996763, 0.0896073952, -0.0001830772, -0.0001756313, 0.0253123213, 0.1024443433, 0.4001016021, 0.0416071229, 0.0137915527, 0.3417839110, 0.0428683236, -0.0394844450, 0.1681585759, 0.3720338941, 0.0912862793, 0.0411164872, 0.0042798109, -0.1971040368, -0.2562192082, 0.1692435145, 0.1064083278, -0.2950581610, 0.0000249856, 0.1842132956, 0.2434004545, 0.1172059625, 0.0008273272, 0.0267854538, -0.0092125768, 0.1254159361, 0.0909510851, -0.0412950516, -0.0332698785, -0.5016921759, -0.2388980091, 0.1190576628, -0.0818769187, 0.0279810615, -0.0637500808, 0.3946687281, -0.0000394715, -0.1767345965, -0.0000142627, 0.0001304490, 0.1555876583, 0.2563153505, -0.0003591751, 0.3310240507, -0.3278261423, 0.3787330091, -0.0738025755, -0.0002446884, -0.3483290970, -0.0194801036, 0.0000070844, 0.0001016058, 0.2360727191, -0.0343385302, 0.0000140548, -0.2907910645, -0.1449451447, -0.0002010712, 0.0001090964, -0.0015744817, 0.1672002822, -0.0117712682, 0.0129792420, 0.0006570916, -0.0818782523, -0.0007234455, 0.0001645926, 0.0009026620, -0.0665345490, -0.0192519594, -0.2999133468, -0.7679005265, 0.1276682913, -0.2723287940, -0.0468937159, 0.0058293645, -0.0004843127, 0.0889955908, 0.1445746273, -0.9253543615, -0.0241104905, 0.2338563353, -0.0000099699, -0.1616267711, -0.2618489265, 0.0398716070, -0.0004964610, -0.1355324984, 0.0109817060, -0.7611236572, -0.2499997616, 0.2136278152, -0.0012017438, -1.2361612320, 0.0000071363, 0.1808741987, -0.2204003930, 0.0001234726, 0.0379867703, -0.2990064621, 0.0196314044, -0.9252418280, 0.0077649872, 0.0696821660, -0.2471320182, -0.0489433408, -1.3088508844, -0.0142895803, 0.0305652283, 0.2451336980, -0.0907972753, 0.0493253507, -0.9020496607, 0.1796496958, 0.0000026066, -0.0006236817, -0.5024960041, -0.0016902254, -0.1442674845, 0.0575813614, -0.0521675274, 0.2011872828, 0.3555190563, -0.0091993259, -0.1303018928, -0.1371294409, 0.2432413697, -0.0062299259, -0.0466283299, 0.1434827298, 0.2286476642, 0.0085438443, -0.4303637147, 0.1220514923, 0.0184649937, -0.2120770514, -0.0088398019, 0.3696692586, 0.0584411137, -0.1103981286, -0.1439131349, 0.1296852827, -0.0045577907, -0.0033144548, -0.2787688375, -0.4307230115, -0.0000080071, -0.1888390034, 0.3885265887, 0.0562230423, -0.0328903496, -0.0025398310, -0.3498415053, -0.0443749130, -0.1161611825, 0.2555686831, -0.0589757599, -0.7899097204, -0.0000120900, 0.2298076898, -0.0573551729, -0.2607664764, -0.2603358328, -0.1165376082, 0.0247603767, -0.3559092581, 0.0153180482, -0.0005177597, 0.0002073589, -0.3308307230, -0.8776140213, 0.1679967046, 0.2858752310, 0.0646458790, -0.1901119053, 0.0707337707, -0.2675726712, 0.0631072968, 0.0000108012, -0.1558261365, -0.3429352939, -0.2730166018, 0.2484299839, 0.3352504969, -0.0317492820, 0.0975930840, 0.0801014006, -0.1183746159, 0.1414498091, 0.2587305903, 0.0000853902, 0.6635820270, 0.1918458641, 0.0003186545, 0.0382757448, 0.2400540859, 0.0926308259, 0.0880977809, 0.2289558202, 0.0299266595, 0.3428692222, 0.0179650057, -0.0085743750, 0.6885679960, -0.5556870103, 0.2147692591, 0.0299869291, 0.0025049895, 0.2011766732, 0.1738163680, -0.0000017361, 0.3270892203, 0.0335038565, -0.0134329209, -0.4970266521, 0.0000088377, -0.0159286894, 0.0953544229, -0.2220631093, 0.0219928641, 0.0313473530, 0.2545128167, -0.1108079553, -0.0015450083, 0.0127707981, 0.0003046716, -0.1040708572, -0.5980949402, -0.1345838457, 0.1388659179, -0.0137420464, 0.0964705721, -0.3054276705, 0.1436122209, 0.0000279191, -0.0303898305, 0.2493115216, -0.0003540747, 0.2066744417, -0.0003293609, -0.0214169864, -0.0192089844, -0.0000171145, 0.0065339105, 0.1457958519, 0.2161260992, 0.3089821339, 0.1488502324, 0.0083491718, 0.2867214978, 0.3264604807, -0.0599721186, -0.0113408966, -0.0272795185, 0.0000515131, -0.1641008556, 0.0004675295, 0.1873691231, -0.1670441926, 0.0573012978, -0.0005055504, 0.1514301449, 0.2222217172, -0.0141744027, 0.0484632254, -0.0022193354, -0.0490753055, 0.1609898657, -0.1465866566, 0.0356107689, -0.0219096486, -0.7488143444, -0.0000740336, 0.0506191291, -0.0000196414, -0.0002130134, 0.1429848671, -0.0002465582, -0.4847638011, -0.0443364866, -0.2291744798, -0.1444088221, -0.7314523458, -0.2169000804, 0.0155902300, -0.0013268351, -0.0209552106, -0.1490751058, 0.2054693997, 0.0896444544, -0.0265239794, 0.2064502388, -0.0810543522, 0.0638921037, -0.0235691480, 0.1535245776, -0.1294837743, 0.2766549587, 0.0890882909, -0.1390608847, -0.2067077160, -0.2837470770, -0.0965998545, 0.1024957970, 0.1328724474, 0.0073925746, 0.0000182251, 0.3575156927, 0.3478748798, 0.0030491198, 0.3065755963, 0.1474293023, 0.0468379594, 0.2563606501, 0.1611737460, 0.1522138119, -0.4390220046, -0.8065147996, -0.1116275787, -0.0003168687, -0.6068539619, 0.1550659239, -0.0001521581, -0.0750762820, -0.0005912789, -0.1928191930, 0.0246170983, -0.0006222851, 0.1908283681, 0.2485387176, -0.1191346943, 0.1455421746, -0.2743167877, 0.1781093627, 0.3296190500, 0.4077553153, -0.6947351694, -0.3422787488, -0.0000110727, -0.2925457656, -0.2588402033, -0.3053860366, 0.0858827159, 0.2624576986, -0.2938761115, -0.0184384435, 0.3766575158, 0.3715845048, 0.3331799805, 0.0575281121, -0.0087971184, 0.3251416385, 0.0637385771, -0.0334861912, -0.4464988708, -0.0578267314, 0.2630635500, -0.0435073860, -0.0153853651, -0.0003740324, -0.0407836996, -0.0614073463, -0.0968020707, -0.0912036076, 0.2600149512, 0.2732038200, 0.2356637865, -0.0746305808, 0.1047069505, 0.0675174445, 0.0000239072, 0.1099520326, -0.1203509569, -0.0823282152, 0.0003236930, 0.2621482611, 0.3504594564, -0.2229295075, 0.1770692766, -0.0828590766, 0.0593440942, -0.0342884660, 0.2426242381, 0.0003763954, 0.0004921340, 0.0414185449, 0.3750777543, 0.0793449804, -0.3600996435, 0.1721924543, 0.0347727388, -0.0568703450, -0.0053337952, 0.4339305162, -0.0005680361, -0.0666886345, -0.1985681057, 0.2063603252, -0.0027243127, -0.0680064932, -0.0182176661, -0.1874565035, 0.0000018078, -0.0338053666, -0.1978427768, 0.1072931886, -0.2634496391, 0.1718076169, 0.0757310987, 0.0563848540, -0.4742364585, -0.0579339750, -0.0001914768, -0.0002309816, 0.0000934025, -0.2380583584, -0.0008297205, 0.0235995892, 0.1761538088, 0.0241939034, -0.0994312689, 0.2207100242, -0.0015905177, -0.0003379033, 0.0420104340, 0.3453682065, -0.0004441360, -0.1090438887, 0.2727907896, -0.4243544936, -0.2263185680, -0.0005968214, -0.0000551963, -0.1423594505, 0.0000259984, 0.0001225259, -0.0003616730, 0.0000140105, 0.3112203479, -0.1401959360, 0.0003742129, -0.0007398680, 0.3594853282, 0.0981215015, -0.0010109191, 0.0707378089, -0.0505382195, 0.0792135298, 0.0000130271, 0.0315538868, -0.1099708676, 0.2246044725, 0.1649694890, -0.2331075966, 0.0001056648, -0.0006472426, -0.0119303009, 0.1950730085, -0.0000101762, 0.0511357076, 0.0139842452, 0.1077188924, 0.2857874632, 0.0297931693, -0.1592772603, 0.0484157503, -0.0000106893, -0.0240523703, -0.0150123881, -0.0830214024, 0.0358922221, -0.1487804055, -0.1004472524, -0.0003519542, 0.0002359013, 0.1392155737, -0.0936660618, -0.1829446703, -0.3049037158, 0.0000966295, -0.0006669439, -0.0919345841, -0.1891742051, 0.2416276783, 0.2003230304, -0.3551256359, -0.0000904001, -0.0522656366, -0.0737495273, -0.2403817028, -0.0012278942, 0.3246662021, -0.1582212597, 0.0009200860, 0.2201872468, -0.0264634229, -0.0009965514, 0.0918536037, -0.0000118519, -0.0001728027, -0.0541916005, -0.1899277121, 0.2235794812, 0.0001711396, 0.0000997267, -0.2398726940, 0.0041816169, 0.2407415807, -0.0710000992, 0.0499668904, -0.0006446873, 0.0009645061, -0.0001644940, 0.3242174685, 0.3139804602, 0.2389153540, 0.0034410022, -0.0756038353, -0.0001032217, -0.0409342013, 0.3049942553, 0.1679701954, -0.0001066718, 0.4107743502, 0.0550760813, -0.0799772888, -0.1853185147, -0.1947899759, 0.0039204708, -0.0443519466, -0.0000101624, -0.0444036424, -0.2859982252, -0.4244796634, -0.2016620040, -0.1652961373, -0.0099227400, -0.1714961827, -0.2788082361, 0.0000176800, -0.0002033377, 0.0003942381, -0.0000234818, 0.0001628154, 0.0003750801, -0.0000449383, -0.0000160335, 0.0000298920, -0.0000669526, -0.0001875277, 0.0001237383, 0.0000298650, -0.0377212726, 0.0000265191, 0.0001812353, 0.0000070218, -0.0001372118, 0.0001498331, -0.0969027653, -0.0001750194, 0.0001655017, 0.0000646942, -0.0000118756, -0.0001858940, 0.1851555556, -0.1448007226, 0.0001333502, -0.0000329471, 0.0000056440, -0.0000384441, -0.0000992611, -0.0003585378, -0.0011442786, 0.3315056562, -0.1320733130, -0.0003305306, 0.0002743923, 0.0062508951, 0.1449269503, 0.0007383491, -0.0100580640, -0.0001810267, 0.0338312499, 0.2576610148, 0.0793214291, 0.4832352698, 0.4066482782, -0.0006515305, -0.1450420469, -0.0001721879, 0.0021254353, 0.2812070549, -0.0680717006, -0.1977592707, -0.0000173374, 0.4521641433, 0.1099435762, 0.2823798954, 0.0021261270, 0.0000666902, 0.0270813704, 0.0957050696, 0.0018300049, 0.2054380476, -0.0195391458, -0.3037797809, 0.2834167480, 0.3102902770, -0.0170154776, -0.0441566035, 0.0010172958, 0.0231279526, 0.0006370880, 0.0006378621, -0.0044136611, -0.0002732677, 0.2657574117, -0.1826118231, -0.0036089108, 0.3807139695, 0.2541595399, 0.2162196189, -0.2902513146, -0.1724126339, -0.1516546905, -0.0154928435, -0.0000033717, 0.0066974047, -0.1708680689, 0.1501916498, -0.1349859387, 0.2962184250, 0.2619466484, 0.0551013872, 0.0010437388, -0.2785954773, 0.0858178437, -0.0000344816, -0.1434632689, -0.2547996938, -0.0199786834, 0.2445377409, -0.2341380715, 0.0366663896, -0.0729046091, -0.2350544780, 0.1374474615, -0.0005650238, 0.1608385444, -0.0012512618, 0.1619324833, -0.1260163784, 0.0292912126, 0.0116226012, 0.3196620345, -0.1779439598, 0.1973455399, 0.2273618579, -0.0000103846, -0.0005384527, 0.2856601179, 0.0853424370, -0.0000664922, 0.0000338940, 0.1054609865, -0.1162840724, 0.1387600601, 0.0294331256, -0.0350185856, -0.0000445792, -0.1174428388, 0.0908815265, -0.1088877097, -0.2487990707, 0.3082200587, 0.0003678069, -0.0646573901, 0.2288173288, -0.0021137537, -0.0001012625, 0.2193395197, -0.1000623256, -0.2503032982, 0.0311649088, 0.2012387663, 0.1222450584, -0.0156172458, 0.1312552094, -0.0452936627, 0.0013964281, 0.0000001080, -0.0241843574, -0.1581019908, -0.0676650852, -0.0608114451, 0.0018364432, 0.0973612741, 0.0072825644, 0.0009039726, 0.0075119743, 0.0726054534, 0.0918070823, -0.2042549998, -0.0001381106, 0.1866183728, 0.0007307559, 0.1444712281, -0.0001192569, -0.0575891174, 0.3456396759, 0.0575656481, 0.3083918989, 0.0379546732, 0.1472222209, 0.3759026229, 0.1964700371, 0.0002791773, 0.0001864650, -0.2295284569, 0.3995815814, 0.0954223499, -0.0727754086, 0.0000200623, 0.4333904088, 0.3223929405, 0.1935962737, 0.0009356397, -0.1225052252, 0.0000035264, 0.5276422501, -0.1506736279, 0.2039814144, 0.0530751310, -0.1204233766, -0.0705193132, 0.0073839584, -0.1024214700, -0.0009523331, 0.2703884244, -0.0275713317, 0.1127738431, -0.0984053165, -0.1312034130, -0.1111415103, 0.1134258136, -0.1178633794, -0.0002672531, 0.2322676927, 0.0319976471, 0.2229315937, -0.0752170905, -0.2462658733, -0.1140050068, 0.0929256007, 0.0000117425, -0.2314653844, 0.1756214499, 0.2155988365, 0.0000125928, 0.3211784959, 0.1536926329, 0.0584569648, 0.0003449060, -0.0000281395, -0.0003521877, -0.0957110673, -0.0039399415, 0.4058988988, 0.0000864921, -0.0000456394, -0.2914444208, 0.0521727130, 0.0573639870, -0.1492354125, -0.0001274838, -0.0007929392, -0.0328526609, 0.0222187564, -0.1866087019, 0.2222835124, 0.0581416041, 0.1298296601, 0.2108484805, -0.0004728476, -0.1967194676, 0.2038664073, -0.0000118887, -0.0002803792, -0.0257881396, -0.3249020576, 0.0000866533, 0.0000265432, 0.0003854297, -0.0001204604, -0.1471897215, 0.2381838262, -0.0032396931, 0.2427858561, -0.2829814851, 0.2205343395, 0.0269441046, -0.0001474344, -0.0774167627, -0.0585350096, 0.2610640526, -0.0002472296, -0.0184467174, 0.0522641577, 0.1064119861, -0.2628290355, 0.2693116069, 0.0203238074, 0.1244911626, 0.2237440050, 0.0532898232, 0.2745499313, 0.2260275632, 0.0945622623, 0.0000108029, 0.0011286101, -0.0037635614, -0.0088380557, 0.3681679070, 0.2650508881, 0.0617464744, 0.0008088313, 0.0000674269, -0.0005294219, -0.0933248401, 0.0000035149, 0.0000091776, -0.0967148393, -0.0000471457, 0.2917741537, 0.2493475229, 0.2536497712, -0.1167516038, -0.0641480535, 0.0038643829, -0.7677298188, -0.0840751827, -0.0705412030, 0.0000474376, 0.2311311513, -0.0014882454, 0.0725534111, -0.1274238974, -1.0533820391, -0.0000158724, -0.0618478023, -0.0000001091, -0.9083130360, -0.0000862638, -0.7057370543, 0.0183611307, -0.0170696583, -0.1002415419, -0.8792824149, -0.4105941057, -0.0096946890, 0.0960122719, -0.3871031106, 0.0580892637, -0.1098959446, -0.3076533079, 0.1845799983, -0.0770018548, 0.3628259897, -0.4852908850, 0.0961373374, -0.1969399601, -0.2958619595, -0.2724678814, -0.1034284011, -0.3426402807, 0.1532319933, 0.3515043855, -0.1841384917, 0.2701542377, -0.6948583722, -0.3066361845, 0.0000914742, 0.0000059682, -0.4781580269, -0.0470133610, 0.1645563096, -0.0647760853, 0.1635694504, 0.0430465601, -0.8539053798, -0.3041993082};

#endif

#endif
